66 100
sent_0 0.046714 0.035867 0.096414 -0.075020 -0.060796 -0.012219 -0.102538 0.049061 0.068108 0.037300 0.112455 0.092806 0.033563 -0.049340 -0.007127 -0.008854 -0.016040 -0.033598 -0.023174 -0.022372 0.037016 0.003628 0.027931 0.009163 -0.036012 0.091219 -0.096841 -0.012521 -0.098868 -0.021450 -0.017471 0.059590 -0.024505 0.077096 0.013434 0.098475 0.016305 0.054368 -0.006719 0.025967 0.010305 -0.058992 -0.025991 0.102673 0.046036 0.003161 0.003351 -0.057621 -0.032564 0.078033 -0.037112 -0.037096 0.011858 0.015070 -0.178711 0.003271 -0.122643 0.055692 0.042985 0.015520 0.012217 -0.027801 0.102667 -0.051391 -0.061229 -0.118859 -0.068483 -0.025355 -0.063470 0.020028 -0.067132 -0.012217 0.036920 0.114961 -0.070647 0.029072 0.046531 0.009800 0.097987 0.086338 0.036990 0.096156 -0.036805 -0.031334 -0.027121 0.067907 -0.021211 -0.014870 0.028531 -0.021261 0.043172 -0.022288 -0.044854 -0.016843 0.000995 -0.128984 0.037500 -0.047867 -0.096039 -0.064343
sent_1 0.126377 0.022990 0.051796 -0.018080 -0.089756 0.125230 -0.054905 -0.017076 -0.003611 0.084981 0.042924 0.001006 0.056655 -0.016031 0.041542 -0.063247 -0.035639 0.052601 -0.019883 -0.017125 0.035283 0.032949 0.025984 -0.000812 0.043787 0.131818 -0.004406 0.042006 -0.099556 -0.066285 -0.022798 0.097057 0.006784 0.034069 0.084893 0.050793 0.017502 0.114327 0.057204 -0.028853 0.061274 -0.117319 -0.115787 0.040151 0.006562 0.092274 -0.027261 -0.060149 0.010910 0.039472 -0.005331 -0.101477 0.096461 0.100851 -0.108317 -0.029027 -0.089018 0.047994 0.028805 0.084175 -0.017292 0.038880 -0.043856 -0.071652 0.095920 0.012262 -0.016837 -0.045202 -0.042418 0.043276 -0.089800 0.067957 0.031576 0.033255 0.044367 0.014230 0.033993 0.014223 0.006672 0.002211 0.009070 0.055826 -0.043717 -0.064654 -0.055268 0.066926 0.066700 -0.053889 -0.000909 0.031816 0.050430 -0.059763 -0.009745 -0.009185 0.042107 0.019954 -0.000429 0.007754 -0.029975 0.003712
sent_2 0.106271 -0.059642 0.011168 0.022836 -0.038453 0.014852 0.032743 0.001911 -0.017901 0.064303 -0.035890 -0.077138 0.032365 0.022000 -0.079178 -0.038940 0.004477 0.029735 -0.068776 0.006895 0.004885 0.007519 -0.004829 -0.011259 0.026882 0.051480 0.101263 -0.034832 0.036705 -0.014481 -0.004928 0.054730 -0.040033 0.003323 0.020645 0.011804 0.008898 0.037018 0.007115 -0.037704 0.053893 0.016811 -0.022787 0.035208 0.014897 0.042195 -0.012199 -0.031717 0.000339 -0.007290 0.007846 -0.049838 0.038607 0.048619 0.026710 -0.005245 -0.027408 -0.012908 0.038188 0.079662 -0.038664 0.064670 -0.083770 -0.065638 0.100652 0.043298 -0.023602 -0.054666 0.053555 0.034119 -0.007237 -0.005567 -0.038716 -0.057311 0.032145 -0.020473 -0.024993 -0.030990 -0.052136 -0.008681 -0.025576 -0.019734 -0.045159 -0.030028 0.009708 0.089899 0.085293 -0.044481 -0.063188 -0.027932 0.014184 -0.046412 0.074861 -0.026600 -0.036834 0.025034 -0.020989 0.017006 0.007785 0.056126
sent_3 -0.008421 0.024627 -0.011165 0.019870 -0.022397 0.073442 -0.018420 -0.099235 -0.027186 0.026572 -0.004411 -0.124396 0.004198 0.071110 0.040832 -0.034598 -0.065933 0.025768 -0.022224 -0.010925 0.026929 0.078774 0.031289 0.024382 0.064966 0.026415 0.083043 0.008188 -0.019309 0.050390 -0.077487 0.074637 0.090610 -0.023582 -0.014533 0.000560 0.002643 0.048802 0.079795 -0.077729 0.059978 0.018079 -0.032864 -0.028971 -0.003294 0.045016 -0.003056 0.000573 -0.006333 -0.079381 0.047869 -0.088303 0.054430 0.058116 0.073735 0.016340 0.046967 -0.054856 -0.034629 0.076763 0.004653 -0.000595 -0.052901 -0.014541 0.164036 0.085444 0.042507 -0.026944 0.017322 -0.057765 -0.050593 0.012153 0.016343 -0.051460 0.040842 -0.010127 0.014467 0.027339 -0.044250 -0.045142 0.011924 0.002769 0.048995 -0.085077 -0.014797 0.058592 0.083147 -0.026486 0.040151 0.044161 0.021660 0.061989 0.044204 0.003157 -0.054374 0.112685 0.007736 0.045851 0.047477 0.075746
sent_4 0.161854 -0.030772 -0.012518 0.058945 -0.075009 0.012733 -0.011845 -0.082513 -0.112396 0.090802 -0.012992 -0.144143 -0.006806 0.088909 0.024434 -0.093672 -0.161606 0.038262 -0.098782 0.007888 0.025823 0.019326 0.053523 -0.028525 0.073593 0.137021 0.116559 0.022963 -0.063188 0.098404 -0.112883 0.268200 0.108996 -0.088136 0.005015 0.041185 0.117332 0.122329 0.102449 -0.131933 0.124854 -0.051378 -0.090603 -0.059962 -0.007644 0.056231 0.060795 -0.104030 0.086932 -0.091805 0.039831 -0.115174 0.104245 0.142112 0.056869 0.054116 0.023583 -0.128001 -0.059220 0.048827 -0.031197 0.092565 -0.125633 -0.063573 0.321970 0.227358 0.029454 -0.035987 0.026148 -0.009730 -0.047388 0.032294 0.007930 -0.119077 0.037228 -0.065754 0.064461 -0.026501 -0.061379 -0.002878 0.025339 0.117740 -0.060203 -0.106910 -0.045454 0.174413 0.124715 0.015751 0.080076 0.016893 0.123088 0.082938 0.050561 -0.010181 -0.039320 0.131836 0.073236 -0.017079 0.023384 0.148270
sent_5 0.016325 0.008909 0.005652 0.056994 0.011706 0.177018 0.026948 -0.162222 -0.047317 0.100182 -0.049415 -0.159299 -0.047711 0.048094 0.074779 -0.037272 -0.069418 0.116406 0.037147 0.019347 0.012857 0.114236 0.021166 0.054741 0.129754 0.048310 0.098166 0.012531 -0.018898 0.012979 -0.023432 0.021602 0.109668 -0.000929 0.057639 0.012697 0.002366 0.106570 0.126848 -0.081337 0.053751 -0.008164 -0.104488 -0.059208 -0.023661 0.127982 -0.054646 0.032416 -0.003715 -0.050002 0.132963 -0.130035 0.081614 0.141709 0.086049 -0.042455 0.038160 -0.003002 0.022122 0.150532 0.025510 0.039306 -0.126738 -0.084935 0.278270 0.190862 0.059527 -0.061778 -0.020108 -0.030492 -0.040452 0.051666 0.038250 -0.091369 0.059546 -0.056194 0.006748 0.042118 -0.095627 -0.083506 -0.023664 -0.067050 0.023687 0.004195 -0.038191 0.034643 0.133670 -0.071405 -0.028269 0.061958 -0.011064 0.021154 0.098817 -0.012646 -0.041585 0.182849 0.011088 0.024594 0.095794 0.053327
sent_6 0.038730 0.019216 -0.024738 0.033466 -0.039845 0.020873 0.009393 -0.031779 -0.028294 0.037041 -0.000049 -0.036421 -0.014079 0.033115 0.027711 -0.025961 -0.095240 -0.007952 -0.026134 -0.001012 0.019699 0.025153 0.034289 0.019873 0.037237 0.003599 0.042944 0.048090 -0.038822 0.047385 -0.036264 0.077964 0.083493 -0.040726 0.034609 0.013602 0.057895 0.044504 0.048549 -0.056163 0.014556 -0.027279 -0.069649 -0.067907 -0.008336 0.011739 0.006860 -0.010422 0.034879 -0.032719 -0.004269 -0.037019 0.042160 0.046143 0.031241 0.008515 0.009273 -0.070984 -0.039655 0.010978 -0.028752 0.047388 -0.082549 0.012403 0.093450 0.103395 0.014971 -0.010131 0.002626 -0.012016 -0.053473 0.049519 0.032724 -0.035875 0.046079 -0.012259 0.047808 -0.005423 -0.014046 -0.020691 0.040597 0.058746 -0.007845 -0.038817 -0.025557 0.040904 0.044974 0.026622 0.039708 0.056153 0.016428 0.039063 0.009541 -0.001672 0.003266 0.041338 -0.011004 0.006478 0.047355 0.049439
sent_7 0.033826 -0.018265 0.013402 -0.010324 -0.014104 -0.014826 0.001665 -0.001274 -0.015435 0.017029 -0.006926 -0.031053 -0.002094 0.010351 -0.008987 -0.020455 -0.020040 0.002310 -0.019831 -0.005305 0.001601 -0.000541 0.010521 -0.012082 0.008080 0.034760 0.022839 -0.012697 -0.008378 0.025924 -0.035220 0.052653 0.015429 -0.006762 -0.010667 0.012623 0.013850 0.022766 0.008363 -0.025420 0.023746 -0.009826 -0.002052 0.016007 -0.015713 -0.008778 0.022183 -0.024698 0.019008 -0.013013 -0.017600 -0.013827 0.013568 0.023279 0.001084 0.028721 0.001029 -0.017874 -0.012137 0.003346 -0.014041 0.023496 -0.007186 -0.013957 0.029308 0.013362 -0.006312 -0.010382 0.011248 -0.003595 -0.001575 -0.001605 0.001888 -0.026619 -0.000094 -0.008607 0.003346 -0.020647 0.008917 -0.004363 0.002927 0.026778 -0.008919 -0.021090 0.009783 0.038946 0.021037 0.018119 0.012616 -0.007852 0.020388 0.001003 0.001579 -0.004249 -0.009397 -0.005788 0.015098 -0.003303 -0.010939 0.043758
sent_8 0.045309 0.009549 0.004530 0.054307 -0.054204 0.053562 0.004749 -0.026037 -0.001266 0.042126 0.021627 0.003368 0.019508 0.011985 0.024156 -0.023020 -0.032979 0.006796 -0.046112 0.008150 0.034320 0.027928 0.035313 0.025483 0.024119 -0.005652 0.048600 0.013857 -0.031012 0.000548 0.030725 0.036913 -0.006692 -0.029485 0.067080 0.027190 0.069693 0.042748 0.033167 -0.041731 0.046893 -0.006836 -0.069601 -0.032893 0.052329 0.061838 -0.008826 -0.025045 -0.003779 0.007373 0.060538 -0.058023 0.047634 0.054545 -0.024429 -0.042949 -0.062952 -0.027011 0.008650 0.052402 -0.008565 0.032763 -0.095879 -0.047047 0.110262 0.067700 0.018357 -0.010395 -0.009127 0.016560 -0.059845 0.011342 0.026472 -0.005508 0.025182 -0.038503 0.024466 -0.003536 -0.048747 0.033284 0.029887 0.023935 -0.053073 0.015853 -0.046857 0.036062 0.061400 -0.054948 -0.012610 0.030097 0.023201 0.007883 0.050031 -0.009363 0.001358 0.054844 -0.027019 -0.006883 0.022688 -0.020189
sent_9 0.002209 0.003224 -0.036837 0.035075 -0.025952 -0.026743 0.019737 -0.049459 -0.043400 -0.002681 -0.007669 -0.061382 0.007079 0.059862 0.008370 0.008196 -0.047430 -0.002755 -0.038802 0.005292 0.001777 0.004182 -0.002878 -0.008829 0.011008 0.001197 0.052165 0.016810 0.007922 0.037593 -0.070329 0.061374 0.048736 -0.042096 -0.032928 -0.002842 -0.011122 0.020737 0.028193 -0.024429 0.014979 -0.008425 -0.006605 -0.030968 -0.002700 0.005007 0.025813 -0.010911 0.011243 -0.031575 -0.026765 -0.030588 0.016896 0.031202 0.052236 0.036445 0.038125 -0.057091 -0.054492 -0.000957 -0.025154 0.018392 -0.030690 0.014605 0.066445 0.041937 0.004004 0.010259 0.046340 -0.012385 -0.003009 0.042446 -0.018621 -0.055421 0.034432 -0.007565 0.014405 -0.003188 -0.033180 -0.010752 -0.014793 -0.009016 0.010127 -0.088579 0.002298 0.026305 0.043201 0.032973 0.035907 0.027042 0.038069 0.020771 0.022580 0.006451 -0.051155 0.044542 -0.012274 0.018001 0.011172 0.072514
sent_10 0.019370 0.013299 0.017158 0.050848 -0.010275 0.098805 0.008453 -0.086711 -0.038782 0.069634 -0.008708 -0.076867 -0.047507 0.024679 0.067961 -0.050593 -0.085789 0.069970 -0.006112 -0.001504 0.022483 0.064869 0.052407 0.045916 0.080254 0.015217 0.085907 0.017232 -0.047897 0.066887 -0.005820 0.076066 0.066527 -0.048393 0.056433 0.005572 0.093649 0.070684 0.089958 -0.087523 0.073602 0.012760 -0.075058 -0.076136 0.019760 0.062505 0.012396 -0.015823 0.034501 -0.060872 0.122566 -0.069229 0.059492 0.101008 0.037502 -0.034946 -0.011294 -0.051679 -0.009333 0.068947 0.037570 0.035066 -0.119076 -0.051152 0.226552 0.175414 0.071353 -0.027251 -0.033125 -0.041119 -0.043504 -0.012529 0.066105 -0.057201 0.013812 -0.071482 0.030246 0.004259 -0.048936 -0.001154 0.044938 0.035070 -0.023739 0.057093 -0.058136 0.049660 0.070642 -0.046127 0.023632 0.035687 0.025474 0.085103 0.064299 -0.002701 0.005281 0.137296 0.022690 -0.018470 0.061183 0.021545
sent_11 0.107609 -0.010208 -0.020032 0.087623 -0.080203 0.049035 0.033846 -0.050099 -0.053142 0.098165 -0.007387 -0.084581 -0.006538 0.048051 0.027850 -0.047040 -0.137598 0.039980 -0.058993 0.010980 0.034919 0.026111 0.070378 0.035864 0.077382 0.031726 0.121396 0.041961 -0.051713 0.054167 -0.025398 0.153898 0.081891 -0.080610 0.075484 0.021894 0.122812 0.116579 0.100536 -0.102840 0.077930 -0.040500 -0.132189 -0.106141 0.022324 0.070113 0.042826 -0.031111 0.049344 -0.044001 0.061025 -0.090755 0.084532 0.129667 0.020698 -0.019874 -0.037742 -0.090516 -0.030521 0.059633 -0.034516 0.100104 -0.184991 -0.042865 0.237567 0.207373 0.030721 -0.021581 0.006444 0.020288 -0.073803 0.054592 0.051346 -0.092710 0.047570 -0.066689 0.063788 -0.009271 -0.070785 0.004395 0.057300 0.063515 -0.082307 -0.013934 -0.070648 0.092875 0.108387 -0.014035 0.020598 0.068341 0.055357 0.048326 0.068001 -0.011170 -0.005659 0.127621 -0.020466 -0.029366 0.053944 0.074145
sent_12 0.039510 -0.015674 0.015223 0.001290 -0.024914 0.009851 0.019157 0.026161 -0.001841 0.032557 -0.008578 -0.017255 -0.005001 -0.007965 -0.025717 -0.016529 -0.015205 0.024281 -0.015051 -0.014626 0.008703 -0.005556 0.017308 0.014606 0.014027 0.001041 0.037124 -0.002305 -0.008470 0.014816 0.012366 0.039165 -0.004372 -0.002814 0.018789 -0.005682 0.040505 0.026491 0.011929 -0.034616 0.027028 0.001624 -0.025451 -0.006381 0.023994 0.004689 0.024494 -0.012086 0.015422 -0.010523 0.019462 -0.011687 0.021243 0.028860 -0.005654 -0.011423 -0.031778 -0.010988 0.016172 0.010594 -0.013831 0.035211 -0.048972 -0.016688 0.041727 0.041931 0.007851 -0.008500 -0.004315 0.014386 -0.006979 -0.008011 0.019626 -0.021293 0.001194 -0.021441 -0.001170 -0.018204 -0.002407 0.004494 0.018532 0.013811 -0.029799 0.021681 -0.003875 0.029307 0.012981 -0.017173 -0.011611 -0.010406 0.010453 0.013703 0.018533 -0.001628 0.010492 0.023472 -0.010391 -0.011388 0.003923 0.000872
sent_13 0.143394 -0.083377 0.043072 0.026337 -0.086045 0.117456 0.055663 0.027236 0.004124 0.129232 -0.050092 -0.155557 0.029623 0.026600 -0.078987 -0.123884 -0.041813 0.079844 -0.120105 -0.035656 0.076550 0.061664 0.097241 0.055367 0.091953 0.021066 0.245002 -0.065698 -0.005016 0.042549 0.047785 0.152307 -0.033557 -0.042179 0.097964 -0.000823 0.167966 0.090436 0.070111 -0.174724 0.187709 0.085002 -0.089851 -0.023031 0.088677 0.055492 0.048866 -0.063868 0.020884 -0.099991 0.137448 -0.111180 0.112731 0.110134 0.032493 -0.078046 -0.108307 -0.071507 0.076205 0.146370 -0.028293 0.127277 -0.249402 -0.115487 0.273124 0.196802 0.048315 -0.084985 0.039519 0.007584 -0.062672 -0.096617 0.056848 -0.102428 0.028396 -0.078582 -0.009417 -0.044045 -0.055086 0.012811 0.082409 0.048493 -0.102551 0.093185 -0.030925 0.183877 0.135958 -0.142189 -0.052005 -0.030169 0.017575 0.054337 0.143897 -0.037158 0.001632 0.150168 -0.029995 0.010106 0.045053 0.072368
sent_14 0.061155 -0.044531 -0.007043 0.009948 -0.022824 0.065792 0.044703 0.026692 -0.000663 0.045687 -0.053417 -0.094924 0.006158 0.033634 -0.041195 -0.088611 -0.031772 0.034964 -0.064648 -0.045993 0.043289 0.025928 0.055434 0.036760 0.048111 -0.001866 0.139741 -0.019387 0.002014 0.051325 0.031913 0.099385 0.017887 -0.041428 0.059747 -0.028354 0.129470 0.016552 0.043573 -0.116419 0.104247 0.065277 -0.047324 -0.044581 0.032150 0.011230 0.030535 -0.044440 0.041234 -0.098485 0.085230 -0.041191 0.063794 0.023558 0.067619 -0.045128 -0.014288 -0.072507 0.030242 0.052304 -0.015290 0.072227 -0.147460 -0.018427 0.156457 0.159292 0.053499 -0.036902 0.029262 -0.022308 -0.037977 -0.053495 0.039689 -0.062803 0.037498 -0.036600 -0.000654 -0.018835 -0.024437 -0.015189 0.068289 0.061594 -0.026049 0.066269 0.002289 0.092185 0.056331 -0.054931 0.007992 -0.011567 0.010689 0.071999 0.048008 -0.006495 0.039556 0.117556 -0.003222 0.018403 0.061785 0.054392
sent_15 0.006937 -0.004638 0.006702 -0.001656 -0.012739 -0.001994 0.000925 0.012523 0.001798 0.004218 0.000217 0.003316 0.011625 -0.004961 -0.008480 -0.007060 -0.000629 -0.004888 -0.008258 0.001691 0.002387 0.002158 0.007166 0.000764 -0.002284 0.002285 0.006160 -0.011833 -0.001384 -0.006441 0.008335 0.008475 -0.013817 0.003340 0.000743 0.000226 0.007868 -0.001006 -0.006905 -0.001261 0.005566 0.007071 -0.004836 0.001476 0.011529 0.004708 0.007769 -0.009172 -0.006560 0.004216 0.007232 -0.000875 0.005303 0.005185 -0.003358 -0.005439 -0.014796 -0.000350 0.010108 0.007101 -0.002861 0.008237 -0.007983 -0.005644 0.002150 -0.004807 0.001592 -0.001013 0.000918 0.005361 0.001379 -0.012125 -0.003447 0.002219 -0.005554 -0.000587 -0.001168 -0.003299 -0.004567 0.004802 0.004968 0.003321 -0.015333 0.003397 0.000819 0.008920 0.008591 -0.004775 -0.001553 -0.005201 0.002629 0.000722 0.005548 -0.004788 -0.000716 -0.001284 0.000124 -0.004955 -0.003333 0.001835
sent_16 0.074572 -0.026758 0.013068 0.027680 -0.065590 0.052458 0.019102 0.033822 -0.000364 0.062549 0.002964 -0.033622 0.012707 0.001270 -0.030894 -0.057073 -0.044485 0.026901 -0.058651 -0.017818 0.041025 0.018106 0.053653 0.047382 0.039582 0.006249 0.100070 -0.003402 -0.022971 0.019910 0.050203 0.086420 -0.006584 -0.028677 0.068790 0.008892 0.102609 0.062508 0.044111 -0.075058 0.079013 0.005447 -0.077636 -0.030620 0.065119 0.039736 0.032242 -0.030843 0.009639 -0.028456 0.076548 -0.061931 0.059672 0.068881 -0.004303 -0.055821 -0.079296 -0.032509 0.038226 0.052623 -0.014051 0.063238 -0.133448 -0.046119 0.134154 0.105523 0.016544 -0.022827 0.001656 0.027894 -0.051460 -0.017735 0.049203 -0.025060 0.011823 -0.047242 0.014212 -0.014487 -0.022629 0.021191 0.047927 0.045394 -0.077727 0.043083 -0.044917 0.089500 0.048289 -0.072931 -0.014511 -0.001900 0.016677 0.044356 0.054390 -0.005732 0.010148 0.077732 -0.023403 -0.014121 0.014929 0.004901
sent_17 0.017329 -0.008748 0.019472 0.014422 -0.026875 -0.001860 0.006513 -0.023589 -0.022022 0.024871 0.001367 -0.035315 -0.001472 0.007229 -0.003835 0.014104 -0.027340 0.028254 -0.012564 0.008697 0.003206 -0.002160 0.010104 0.000028 0.016066 0.012919 0.033275 -0.011049 -0.004111 0.019282 -0.041957 0.051257 0.017889 -0.009302 -0.013375 0.007722 -0.002447 0.037140 0.020603 -0.017693 0.025556 -0.005373 -0.001158 -0.003135 0.010782 -0.000020 0.037799 0.001060 0.003978 -0.000693 -0.005316 -0.026267 0.006225 0.053401 -0.005453 0.022123 -0.017868 -0.017705 -0.020867 0.007864 -0.007518 0.023473 -0.018963 -0.026772 0.052683 0.015158 -0.008190 -0.010041 -0.000736 0.004818 0.009143 0.000882 0.008481 -0.044287 -0.005420 -0.015853 0.009739 -0.012518 -0.003995 0.009587 0.000397 -0.013619 -0.018413 -0.016144 -0.005872 0.032455 0.030646 0.011653 0.000979 0.000390 0.019494 0.005279 0.034990 -0.003894 -0.033102 0.005739 0.001688 -0.011180 -0.013313 0.031045
sent_18 -0.001911 0.004231 -0.008440 0.026782 -0.001802 0.043739 0.026311 -0.015192 -0.002860 0.018456 -0.013149 -0.015894 -0.023393 0.004235 0.019483 -0.014529 -0.028055 0.020131 -0.003511 -0.008098 0.015081 0.022841 0.028491 0.023893 0.028209 -0.038748 0.043327 0.017884 -0.012085 0.030999 0.022233 0.004802 0.030148 -0.028013 0.039448 -0.015530 0.049965 0.011969 0.031999 -0.038016 0.023602 0.020209 -0.030903 -0.051818 0.016582 0.012051 0.003879 0.013915 0.019922 -0.027677 0.041579 -0.007250 0.018964 0.030141 0.030962 -0.027854 -0.012897 -0.033218 0.000813 0.014067 -0.004438 0.025911 -0.078050 0.006224 0.061538 0.077916 0.037242 -0.002729 -0.007062 -0.014808 -0.017381 0.000597 0.036013 -0.026824 0.024685 -0.024130 0.015265 -0.002079 -0.013707 -0.008969 0.036757 0.007985 -0.008338 0.048775 -0.011151 0.002052 0.018881 -0.006712 0.010169 0.018946 -0.005329 0.037583 0.018069 -0.000853 0.014307 0.057122 -0.022026 0.006117 0.043663 0.006243
sent_19 0.075452 -0.039919 0.028355 -0.005648 -0.039284 0.001234 0.025431 0.043675 -0.005551 0.043163 -0.016320 -0.030078 0.006289 -0.010916 -0.050013 -0.034721 -0.021093 0.027694 -0.034945 -0.007365 0.013578 -0.013624 0.026087 0.006253 0.021590 0.016998 0.063431 -0.022388 -0.000962 0.016137 0.015417 0.067343 -0.016917 -0.004420 0.029238 0.004904 0.050834 0.043636 0.013137 -0.034584 0.043207 -0.006210 -0.030101 0.002627 0.021030 -0.005689 0.037877 -0.026997 0.025886 -0.005570 0.009957 -0.018054 0.032382 0.044938 -0.020624 -0.012497 -0.050718 -0.008916 0.022599 0.018340 -0.018396 0.059528 -0.061960 -0.028577 0.053840 0.049699 -0.007331 -0.018685 0.001488 0.029060 -0.010887 -0.020897 0.020832 -0.032959 -0.010024 -0.029906 -0.002420 -0.034793 0.015482 0.009662 0.016318 0.022065 -0.049517 0.031117 -0.006027 0.058480 0.026186 -0.019381 -0.021105 -0.034321 0.012984 -0.001407 0.028051 -0.010578 0.015350 0.006481 -0.013091 -0.018454 -0.018315 0.023859
sent_20 0.120199 -0.046118 0.028075 -0.006837 -0.074023 0.034039 0.017372 0.042044 -0.006279 0.074190 -0.003586 -0.063896 0.029462 0.013809 -0.073274 -0.082417 -0.041926 0.035474 -0.089572 -0.040767 0.042379 0.004839 0.056196 0.035792 0.037296 0.053604 0.127805 -0.034835 -0.019135 0.029487 0.029212 0.156664 -0.007719 -0.019019 0.041411 0.004901 0.121418 0.068089 0.037859 -0.101134 0.116882 0.018488 -0.058005 0.012315 0.067934 0.024758 0.053180 -0.083308 0.023575 -0.044140 0.094742 -0.084841 0.084467 0.071075 -0.003093 -0.037668 -0.086260 -0.032321 0.048072 0.059882 -0.019744 0.063085 -0.120595 -0.075873 0.170824 0.109041 0.017672 -0.038421 0.013469 0.014043 -0.041256 -0.046043 0.039822 -0.041581 -0.005232 -0.051734 -0.004292 -0.035264 -0.018771 0.030557 0.044156 0.070509 -0.088131 0.018485 -0.025126 0.141927 0.063835 -0.073412 -0.006574 -0.051927 0.051610 0.047337 0.066023 -0.003886 -0.004037 0.078684 0.002354 -0.020408 -0.017441 0.020807
sent_21 0.121259 -0.018171 -0.047095 0.077993 -0.077237 0.049486 0.053538 0.036241 -0.014600 0.066295 -0.029303 -0.049494 0.023277 0.024750 -0.017003 -0.078648 -0.077464 -0.012882 -0.067657 0.006689 0.044936 0.017335 0.064952 0.038865 0.050999 -0.024077 0.120562 0.057454 -0.019027 0.004740 0.048911 0.069485 0.023551 -0.053363 0.126060 0.008448 0.117880 0.049354 0.039061 -0.088609 0.043801 -0.030667 -0.135923 -0.090217 0.006098 0.045661 -0.019761 -0.009697 0.040361 -0.033657 0.008378 -0.032972 0.077339 0.037902 0.032481 -0.053717 -0.038805 -0.083556 -0.004171 0.052586 -0.085847 0.115938 -0.208271 0.011690 0.101815 0.150377 0.006936 -0.038027 0.032668 0.043536 -0.091069 0.061892 0.032848 -0.041832 0.096595 -0.027090 0.044855 -0.014922 -0.062940 -0.043188 0.071144 0.080411 -0.064043 0.005249 -0.039135 0.069294 0.075923 -0.031337 -0.024315 0.072912 -0.016310 -0.003869 0.025823 -0.013668 0.060425 0.074307 -0.083028 0.031826 0.092090 0.049677
sent_22 0.024752 -0.000856 -0.045110 0.029332 -0.028318 -0.013104 0.015724 -0.022276 -0.032692 0.009022 -0.012250 -0.058025 0.016186 0.060447 -0.001272 -0.019149 -0.055088 -0.022864 -0.047546 -0.004858 0.021845 0.006924 0.018681 0.003692 0.017424 -0.007350 0.056403 0.022263 0.001363 0.034272 -0.033282 0.063185 0.055798 -0.040418 -0.006721 -0.009983 0.023801 0.017614 0.026587 -0.045270 0.025559 -0.008225 -0.036719 -0.045902 -0.001862 0.008050 0.013836 -0.007291 0.021820 -0.042357 -0.012018 -0.035179 0.037768 0.014225 0.061972 0.019023 0.032450 -0.067391 -0.034975 0.006958 -0.035081 0.029740 -0.062194 0.026517 0.072027 0.065604 0.006321 0.004665 0.040763 -0.009835 -0.030260 0.046086 -0.006780 -0.041166 0.050091 0.003003 0.021981 0.004528 -0.031570 -0.021498 0.010159 0.029724 0.005879 -0.078743 0.002162 0.044303 0.045160 0.015919 0.026109 0.036292 0.024679 0.029739 0.015691 0.005124 -0.019761 0.049165 -0.019011 0.030325 0.036902 0.063104
sent_23 0.159410 -0.019736 -0.041645 0.085493 -0.125570 0.088852 0.050117 0.053860 0.002567 0.096991 -0.014634 -0.031811 0.062235 0.032739 -0.041288 -0.097356 -0.072336 -0.004460 -0.108622 -0.012374 0.076536 0.024533 0.083950 0.061622 0.058184 -0.015970 0.153815 0.051679 -0.031129 -0.022692 0.090863 0.104931 0.010456 -0.058458 0.169736 0.013396 0.172886 0.078900 0.065938 -0.114367 0.094908 -0.036459 -0.180774 -0.091120 0.073290 0.095900 -0.008733 -0.040154 0.031656 -0.015208 0.053498 -0.090686 0.126545 0.073098 0.002467 -0.101170 -0.102034 -0.077144 0.037172 0.089963 -0.084189 0.132454 -0.263069 -0.018482 0.171112 0.186554 0.011727 -0.046312 0.039000 0.068300 -0.131881 0.066703 0.045790 -0.022071 0.112110 -0.036613 0.050847 -0.004320 -0.086017 -0.011274 0.081280 0.106777 -0.105989 0.004757 -0.072300 0.108253 0.103821 -0.089292 -0.036845 0.074289 0.018428 0.002456 0.054058 -0.008584 0.057537 0.124676 -0.108239 0.022807 0.082971 0.017302
sent_24 0.004257 -0.000944 -0.004250 0.003614 0.000193 -0.001811 0.004630 0.004383 -0.002400 -0.002986 0.000889 0.003425 -0.001633 0.000864 -0.003378 -0.003054 0.002613 -0.003499 -0.002341 0.001895 -0.004849 -0.004678 -0.002125 -0.001634 -0.001378 0.003072 -0.004640 -0.001416 0.001383 -0.003570 0.003577 0.001456 -0.003847 -0.002919 0.002455 -0.000966 -0.000155 0.003875 -0.003626 0.004644 -0.004574 -0.004006 -0.002768 0.003066 -0.000441 0.001533 -0.003257 -0.003333 0.000208 0.002403 -0.000375 0.003696 0.001604 -0.002509 -0.002651 -0.001260 0.002566 0.004379 0.003619 -0.002384 -0.000877 0.001115 0.000468 -0.001107 -0.003986 0.002122 -0.004119 0.003661 0.003634 0.002085 -0.000136 0.001991 -0.001050 0.002975 0.002864 -0.003445 -0.001822 -0.001560 -0.001358 0.000666 -0.004583 0.001600 -0.002984 -0.000835 -0.000491 -0.001513 -0.001167 -0.003197 -0.004319 0.000513 0.000959 -0.003545 -0.002691 -0.002136 0.003308 -0.003466 0.000521 0.000681 -0.001566 -0.001494
sent_25 -0.009290 0.005391 0.005497 0.007149 -0.012438 -0.013903 -0.005485 -0.006104 0.006714 0.005737 0.009504 -0.013361 0.004094 0.003380 -0.011886 0.027651 -0.020453 -0.008340 -0.001107 0.008008 0.003269 0.004536 0.008482 0.012878 0.007133 -0.016301 0.007774 -0.001335 0.004672 0.010581 -0.013798 -0.002801 0.019235 0.005472 -0.010554 0.014444 -0.013333 0.012387 0.012590 0.000550 -0.015750 0.001352 -0.007857 -0.006867 0.010094 0.001324 0.010738 0.021764 -0.020976 0.008971 -0.005513 -0.019221 -0.004492 0.011312 -0.001331 0.010010 -0.006977 -0.004379 -0.005427 0.005244 -0.004791 -0.003003 0.001355 0.000846 -0.000363 -0.018900 -0.021576 -0.000359 0.000198 0.004413 -0.010623 0.014504 0.008704 -0.003843 -0.009832 0.000743 0.009550 0.003834 -0.003562 -0.005005 -0.000294 -0.015091 0.002481 -0.022879 -0.006019 0.009691 0.008501 0.006458 -0.006445 0.007033 -0.007465 0.001848 0.013360 -0.003621 -0.030305 -0.005671 -0.019771 -0.009481 0.001558 -0.000940
sent_26 -0.020376 0.004918 -0.003432 0.029233 0.000687 0.018150 0.020259 -0.058134 -0.026309 0.013619 -0.005591 -0.030944 -0.021889 0.020718 0.032043 0.017773 -0.028271 0.024111 0.004537 0.014784 -0.000189 0.020797 0.006275 0.005271 0.025201 -0.010172 0.026879 0.013377 -0.003828 0.025789 -0.024171 0.014673 0.029082 -0.025861 -0.008501 -0.002010 0.007421 0.021473 0.029519 -0.014944 0.019601 0.010668 -0.004258 -0.044272 0.003863 0.025894 0.009301 0.009380 0.008294 -0.015588 0.028349 -0.023654 0.000974 0.052122 0.022031 0.004924 0.011468 -0.023608 -0.022553 0.009206 0.006308 0.006702 -0.029450 -0.016898 0.081069 0.047618 0.027718 0.003679 0.004051 -0.014591 0.010516 0.007764 0.008364 -0.044560 0.000337 -0.027847 0.009170 -0.002588 -0.030986 0.001506 -0.000073 -0.029853 -0.006817 0.006062 -0.013327 -0.008185 0.026795 0.013866 0.010848 0.016826 0.013024 0.023954 0.034041 0.004136 -0.030017 0.050993 0.001253 -0.006213 0.014874 0.020436
sent_27 0.096692 -0.026917 0.056791 0.077232 -0.032368 0.014294 0.008622 -0.140093 -0.098195 0.121817 0.003644 -0.146592 -0.072392 0.046984 0.050680 -0.001616 -0.163954 0.093493 -0.012670 0.063592 -0.016783 0.041810 0.050128 -0.001075 0.105015 0.104720 0.097474 -0.012603 -0.051986 0.106615 -0.123049 0.183159 0.119325 -0.057912 -0.022179 0.076954 0.033975 0.165405 0.121462 -0.077328 0.056234 -0.038307 -0.071794 -0.058261 -0.028447 0.060232 0.062375 -0.013674 0.036266 -0.040477 0.067054 -0.108352 0.031698 0.194734 0.023254 0.062750 -0.000804 -0.081621 -0.055034 0.072532 0.024144 0.081298 -0.082863 -0.104139 0.298868 0.187550 0.007689 -0.046152 -0.026193 -0.012638 -0.014134 0.021393 0.048421 -0.150518 -0.050013 -0.108831 0.057506 -0.029039 -0.058229 -0.000391 0.004208 -0.008102 -0.060300 -0.024506 -0.062949 0.119170 0.123274 0.028727 0.025184 0.034549 0.060908 0.052210 0.101757 -0.033830 -0.096268 0.092564 0.063823 -0.083205 0.013374 0.116203
sent_28 0.039069 -0.016510 0.012363 0.003355 -0.019406 -0.002716 0.005594 0.006988 -0.002726 0.018399 -0.006815 -0.011754 0.000185 -0.008102 -0.015446 -0.015506 -0.019276 0.009808 -0.020336 0.008979 0.005328 -0.001884 0.008384 -0.005903 0.006070 0.016966 0.028335 -0.002592 -0.009385 0.000889 -0.002889 0.026329 -0.006177 -0.007636 0.010860 0.010507 0.016799 0.021766 0.006521 -0.017880 0.013320 -0.005968 -0.016866 -0.001281 -0.000239 0.003556 0.005487 -0.003579 0.006934 -0.000123 -0.007871 -0.002289 0.006860 0.015301 -0.008538 -0.001864 -0.018367 -0.007752 0.004161 0.005032 -0.014385 0.034556 -0.025843 -0.016116 0.018877 0.021441 -0.009783 -0.013556 0.005033 0.012948 -0.013126 0.005023 0.002521 -0.019182 0.002647 -0.010017 0.004424 -0.013040 -0.003368 -0.000507 0.013811 0.011557 -0.025139 0.001327 -0.005248 0.027362 0.018858 0.004530 -0.010979 -0.005398 0.002043 -0.013859 0.007526 -0.007035 0.002274 -0.004431 -0.006687 -0.008370 -0.003499 0.014520
sent_29 0.032717 -0.015043 -0.052798 0.038998 -0.042570 0.015027 0.038062 -0.008891 -0.024711 0.020646 -0.034237 -0.073497 0.041709 0.055563 -0.039778 -0.009885 -0.018540 0.000847 -0.049958 0.002953 0.019290 0.018796 0.000648 0.008757 0.023946 -0.019799 0.088894 0.009639 0.032094 -0.006506 -0.010943 0.023159 0.015911 -0.027705 0.012917 -0.016042 0.001595 0.012121 0.031572 -0.033219 0.024168 0.000443 -0.039116 -0.030382 0.015696 0.035835 -0.004148 0.010169 -0.006564 -0.018281 -0.008812 -0.046666 0.041621 0.015383 0.065087 -0.005986 0.014359 -0.042732 -0.011478 0.040132 -0.055955 0.045128 -0.097103 0.001951 0.062375 0.047896 -0.003857 -0.010720 0.065824 0.023332 -0.022682 0.050485 -0.022830 -0.043626 0.071371 -0.000241 -0.000551 0.003143 -0.058911 -0.033925 -0.010502 -0.028016 -0.012309 -0.068691 0.001813 0.034673 0.061720 -0.015401 -0.020739 0.026874 0.002776 -0.014859 0.045106 0.000067 -0.030291 0.066998 -0.064744 0.047142 0.040924 0.054038
sent_30 0.056953 -0.026305 0.006499 -0.000249 -0.006893 -0.011723 0.004886 -0.000653 -0.017105 0.023135 -0.009594 -0.039095 -0.002410 0.010736 -0.012775 -0.027569 -0.031842 0.011396 -0.023654 0.000282 -0.006630 -0.006723 0.010659 -0.016883 0.017170 0.043309 0.026559 -0.010890 -0.005495 0.027026 -0.029837 0.070375 0.020473 -0.009561 -0.005980 0.009423 0.026535 0.026959 0.012426 -0.027484 0.025561 -0.008393 -0.014090 0.006769 -0.016428 -0.007916 0.013701 -0.032608 0.035050 -0.023861 -0.009430 -0.008861 0.013692 0.024524 0.003672 0.022604 0.008216 -0.022470 -0.002356 0.004076 -0.007622 0.030612 -0.018860 -0.008287 0.053203 0.043284 -0.006158 -0.009595 0.001672 0.005708 -0.008170 -0.005081 0.003398 -0.029454 -0.003062 -0.010017 0.009210 -0.021185 0.007327 -0.006789 0.005262 0.027933 -0.018423 -0.012422 0.007881 0.042265 0.018781 0.013305 0.010355 -0.013961 0.022736 0.000657 0.000627 -0.001388 0.007024 0.002988 0.024086 -0.013259 -0.002545 0.042194
sent_31 0.033302 0.002684 -0.020065 -0.008526 -0.013576 0.044294 -0.013982 -0.030856 -0.022590 0.022708 -0.022615 -0.090663 0.015338 0.058017 -0.003261 -0.060219 -0.033549 0.000481 -0.022502 -0.020825 0.018017 0.042752 0.017861 0.005865 0.035587 0.055815 0.048394 0.009098 -0.010806 0.015200 -0.029290 0.064687 0.052974 -0.003754 0.005215 0.000341 0.017135 0.027449 0.047666 -0.053534 0.041930 -0.012859 -0.042797 0.009087 -0.018192 0.033348 -0.027209 -0.031374 0.011490 -0.050356 0.016934 -0.059428 0.060047 0.018005 0.063072 0.005133 0.052453 -0.023886 -0.001176 0.049263 -0.010747 0.008477 -0.038307 0.001623 0.107313 0.068087 0.014601 -0.030843 0.029513 -0.019103 -0.041296 0.028539 -0.014305 -0.021396 0.050125 0.013082 -0.000787 0.015940 -0.022207 -0.052381 -0.009896 0.034138 0.029952 -0.079801 0.013206 0.063089 0.049521 -0.018389 0.026274 0.009426 0.025333 0.017265 0.005839 0.008582 -0.008183 0.072720 0.016387 0.050135 0.040297 0.063177
sent_32 0.060891 -0.046035 -0.004672 0.023538 -0.020547 0.043090 0.030215 -0.038086 -0.067938 0.068334 -0.049657 -0.149085 -0.043055 0.053269 -0.003516 -0.074669 -0.099886 0.063479 -0.059897 -0.031032 0.021466 0.026531 0.053364 0.022459 0.073724 0.049896 0.156213 -0.016565 -0.010715 0.101709 -0.029118 0.172255 0.076521 -0.072911 -0.002441 -0.019570 0.112569 0.073152 0.085171 -0.135289 0.117142 0.043113 -0.044752 -0.062809 0.025275 0.022335 0.074660 -0.053764 0.053293 -0.118925 0.124095 -0.078614 0.079942 0.103006 0.097224 0.006029 0.010969 -0.091139 -0.007278 0.057107 0.014474 0.062676 -0.137752 -0.051950 0.278794 0.217264 0.071493 -0.021405 0.013048 -0.039069 -0.006205 -0.053214 0.047311 -0.119740 0.000138 -0.079917 0.006177 -0.032060 -0.043719 -0.009841 0.031968 0.045871 -0.032625 0.017214 -0.016950 0.123624 0.078856 -0.029638 0.043478 -0.026339 0.058057 0.123769 0.082344 0.003257 -0.028119 0.159885 0.043667 -0.016967 0.040912 0.091406
sent_33 -0.005558 -0.000654 0.004360 0.008090 -0.004439 0.004391 -0.000833 -0.006864 -0.004910 0.003811 0.003182 -0.002094 -0.002572 0.000678 0.005103 -0.001260 -0.008397 0.006898 0.004664 0.003308 -0.004920 0.004751 -0.002295 0.003167 0.009524 0.002676 0.000531 0.003408 0.001438 -0.000343 0.000946 0.007528 0.000878 -0.000929 0.002236 0.000417 -0.000259 0.007646 0.002678 -0.003244 0.003734 -0.003229 0.000527 0.000036 0.006466 0.006747 -0.004175 0.005769 0.000111 -0.001112 0.012838 -0.003311 0.004943 0.007881 0.001351 0.002101 0.001286 -0.002660 0.001712 0.005258 0.003287 -0.007230 -0.002940 -0.003464 0.017080 0.008690 -0.000427 -0.005563 -0.001201 -0.004286 -0.002912 -0.005528 -0.001327 -0.004572 -0.006546 -0.003943 0.004363 0.006571 0.000135 0.000452 0.001883 -0.002270 -0.004166 -0.003552 -0.008108 0.006463 0.005937 -0.007011 0.003495 0.003923 -0.002708 0.004096 0.007296 -0.003946 -0.001071 0.013587 0.007068 -0.005926 0.001534 0.000988
sent_34 0.100514 -0.033770 0.000433 -0.012821 -0.059777 0.012084 0.008033 0.051866 -0.001133 0.041026 -0.004150 -0.042007 0.033734 0.022773 -0.056530 -0.060688 -0.040437 -0.005491 -0.072260 -0.033147 0.027110 -0.003338 0.036284 0.018566 0.015666 0.033460 0.077665 -0.003418 -0.014112 0.019555 0.007250 0.107259 0.005577 -0.009500 0.029565 0.005476 0.068849 0.037737 0.023998 -0.063294 0.054425 -0.017691 -0.057090 0.008155 0.029098 0.007457 0.024798 -0.045784 0.021114 -0.030080 0.009193 -0.048278 0.064582 0.030027 0.003982 -0.005303 -0.045632 -0.029747 0.022055 0.031359 -0.039137 0.051143 -0.087594 -0.016962 0.077502 0.061436 -0.009069 -0.026501 0.025942 0.018177 -0.041762 0.008641 0.016593 -0.012764 0.026176 -0.009517 0.007729 -0.019652 -0.000910 -0.003268 0.027292 0.070579 -0.043885 -0.031211 -0.001541 0.099028 0.035134 -0.033294 0.007950 -0.020608 0.030055 0.020022 0.019659 -0.001315 0.015959 0.027885 -0.014017 0.012090 -0.002359 0.033380
sent_35 0.019852 -0.008541 0.001616 -0.005184 -0.006413 0.001876 0.003250 0.015520 -0.002455 0.009535 -0.008290 -0.011715 0.001399 -0.002080 -0.013351 -0.010767 0.000663 0.006450 -0.005628 -0.001307 0.000970 -0.005964 0.000406 0.000602 -0.000842 0.003656 0.019415 -0.001381 -0.001166 -0.003712 0.002432 0.017343 -0.005674 0.001049 0.008093 -0.000874 0.008985 0.002153 0.006662 -0.013811 0.006557 0.000359 -0.001870 0.002450 0.001622 -0.004113 0.010104 -0.002720 0.000135 -0.000553 0.002812 -0.003509 0.008393 -0.000693 -0.000125 -0.007543 -0.004931 -0.004539 0.005693 0.002827 -0.003466 0.007391 -0.018200 -0.002275 0.012766 0.012121 0.001430 -0.009097 0.002703 0.001237 -0.001446 0.001715 -0.002692 -0.007663 -0.002544 -0.001849 -0.004572 -0.003324 -0.003228 0.002750 0.001084 0.003111 -0.011466 0.007550 0.001537 0.016150 0.001223 -0.004932 -0.001690 -0.000377 0.002624 -0.003355 0.007439 -0.006189 0.006064 0.007844 -0.003317 -0.000508 0.005556 0.000909
sent_36 -0.004904 -0.002480 0.000057 0.000404 -0.001287 -0.002073 -0.002976 0.003003 -0.001841 -0.000075 0.003113 0.001124 -0.000914 -0.003231 -0.001023 -0.000148 0.004906 -0.002158 -0.003344 -0.002794 -0.002885 -0.004240 -0.001351 -0.002153 0.003876 0.002803 -0.003909 0.003505 -0.003904 0.002202 0.000728 -0.004132 0.004053 0.003746 0.003439 -0.001304 -0.002770 0.004971 0.003173 -0.004579 -0.001267 0.003122 0.000284 -0.002529 0.002929 -0.002382 -0.004996 -0.002687 0.004934 0.001562 -0.002793 0.001861 0.001869 0.001407 -0.004295 -0.002570 0.003708 0.002347 -0.003322 -0.002014 0.000627 0.003264 -0.002995 -0.003983 -0.001181 0.004124 -0.002395 -0.003917 -0.004441 -0.001483 -0.004624 0.000830 0.001726 -0.000395 0.002411 0.000010 0.002024 -0.002694 0.002446 0.000016 0.002054 -0.000533 0.000059 -0.004585 -0.000107 -0.003577 -0.003575 -0.000666 0.000762 -0.001570 -0.003395 0.002414 0.004631 0.002336 -0.004229 0.003409 -0.004325 -0.000637 0.004289 -0.002368
sent_37 0.021300 0.013637 0.036656 0.062457 -0.032962 0.075447 0.060766 -0.030920 0.023895 0.091855 -0.012122 -0.025145 -0.058400 -0.017173 0.027329 -0.005161 -0.085304 0.045560 0.010029 0.009251 0.033481 0.051326 0.061045 0.069259 0.077875 -0.057459 0.076506 0.029539 -0.032810 0.041999 0.044712 0.014151 0.052788 -0.021350 0.101122 0.035667 0.098096 0.079203 0.083885 -0.060573 0.019693 0.013390 -0.108896 -0.100962 0.028896 0.048339 -0.003734 0.044282 0.016629 0.006504 0.080669 -0.050344 0.034689 0.099853 -0.002043 -0.065302 -0.065849 -0.042325 0.010967 0.067951 -0.010189 0.075991 -0.153657 -0.030341 0.140541 0.139923 0.028827 -0.028920 -0.040602 0.004792 -0.065193 0.031041 0.093768 -0.054876 0.014274 -0.064769 0.055072 0.006219 -0.033928 -0.006579 0.069554 0.011017 -0.048313 0.115620 -0.051405 0.015483 0.060955 -0.020794 -0.022462 0.061171 -0.035398 0.022677 0.070263 -0.024827 0.022893 0.069222 -0.050910 -0.033181 0.091928 -0.010898
sent_38 0.088057 -0.041145 0.012032 0.010038 -0.032944 -0.006329 0.021700 0.043015 -0.004298 0.038175 -0.021891 -0.035917 0.018824 0.001151 -0.048945 -0.042285 -0.016907 0.004071 -0.048444 0.007209 0.008736 -0.009123 0.022259 -0.008840 0.018940 0.018167 0.064075 -0.012177 0.000214 0.008720 0.010930 0.062468 -0.024702 -0.008957 0.034296 0.016273 0.049243 0.029948 0.001505 -0.039170 0.032926 -0.000769 -0.029571 0.007850 0.000185 -0.000669 0.019863 -0.022718 0.024572 -0.009495 -0.013387 -0.003744 0.022458 0.016513 -0.009308 -0.003858 -0.036321 -0.027020 0.015867 0.020745 -0.044208 0.070164 -0.070190 -0.014577 0.029170 0.038522 -0.024897 -0.031250 0.018502 0.035206 -0.017335 -0.007894 -0.003062 -0.031507 0.007138 -0.018513 0.010172 -0.029505 -0.008748 -0.002407 0.028654 0.030438 -0.044467 0.010700 0.002892 0.066358 0.031818 -0.010849 -0.022022 -0.013509 0.001338 -0.015751 0.027065 -0.016535 0.019632 -0.008224 -0.016525 0.001507 0.008310 0.045956
sent_39 0.015738 0.021325 -0.015540 0.045319 -0.004286 0.068115 0.005978 -0.061453 -0.028733 0.035440 -0.009451 -0.049910 -0.040046 0.028097 0.059055 -0.041312 -0.080036 0.030832 0.007026 0.001282 0.019400 0.041733 0.039588 0.030390 0.050989 0.003454 0.039332 0.038318 -0.035553 0.050030 -0.002798 0.047413 0.080005 -0.045738 0.047243 0.001855 0.070655 0.047751 0.064002 -0.067122 0.033581 -0.004741 -0.069523 -0.084146 -0.009284 0.040782 -0.013822 0.002208 0.034041 -0.045107 0.069279 -0.034042 0.035756 0.054320 0.039849 -0.018706 0.017587 -0.056373 -0.023460 0.038489 0.017847 0.032456 -0.089146 -0.003314 0.139621 0.137852 0.047118 -0.013784 -0.020942 -0.026204 -0.043204 0.021713 0.048580 -0.042195 0.026822 -0.037583 0.034194 0.008871 -0.035026 -0.027774 0.040535 0.047107 -0.000021 0.018822 -0.040496 0.017332 0.046472 -0.009849 0.037139 0.050379 0.008905 0.063491 0.014675 0.005746 0.025546 0.098659 0.016150 -0.006746 0.065634 0.029909
sent_40 0.107024 -0.072325 0.005720 -0.025101 -0.048425 -0.005898 0.029405 0.111965 0.026906 0.041807 -0.033230 -0.058095 0.056911 0.012890 -0.125566 -0.082792 0.016080 -0.003579 -0.101020 -0.048498 0.042567 -0.022933 0.038625 0.020035 -0.001020 0.007759 0.130058 -0.054197 0.028258 0.008193 0.059750 0.095760 -0.060785 -0.009183 0.041716 -0.016708 0.111862 -0.000863 -0.010288 -0.085299 0.093566 0.051265 -0.028308 0.029381 0.065750 -0.008951 0.037487 -0.065773 0.020911 -0.048125 0.035289 -0.030377 0.059271 -0.009767 0.013228 -0.042292 -0.073336 -0.036666 0.065772 0.044633 -0.039508 0.068198 -0.114571 -0.024749 0.064742 0.068680 -0.000409 -0.036460 0.059626 0.027056 -0.023243 -0.067484 0.002758 -0.026250 0.017291 -0.014243 -0.024204 -0.038130 -0.006730 0.020222 0.049241 0.067023 -0.067865 0.032984 0.024360 0.130189 0.036780 -0.076108 -0.031339 -0.060754 0.017024 0.019847 0.045487 -0.016796 0.024783 0.037881 -0.022566 0.014144 -0.001337 0.036112
sent_41 0.058732 -0.020325 0.012444 0.006965 -0.053231 -0.004508 0.003005 0.034835 0.025655 0.045814 0.016987 0.002944 0.037683 -0.004151 -0.052115 -0.010546 -0.014742 -0.014247 -0.049947 -0.005594 0.021176 -0.005597 0.020405 0.028141 0.003173 0.003267 0.044789 -0.011160 -0.001727 -0.014527 0.032583 0.034364 -0.022337 0.007293 0.033687 0.025297 0.044263 0.029681 0.008201 -0.024180 0.018907 -0.007008 -0.049802 0.016919 0.048504 0.023715 0.008987 -0.011284 -0.016025 0.021633 0.009030 -0.040730 0.031134 0.023508 -0.032832 -0.027676 -0.069761 -0.005007 0.034606 0.040683 -0.027580 0.033759 -0.053664 -0.035493 0.026434 0.005932 -0.028432 -0.019612 0.010866 0.039290 -0.038248 0.002677 0.019189 0.007534 -0.002196 -0.013081 0.011232 -0.006109 -0.012326 0.028311 0.022261 0.028838 -0.053187 -0.002119 -0.019045 0.057756 0.030139 -0.045068 -0.033307 -0.004666 0.003259 -0.015106 0.036224 -0.009261 -0.015100 -0.001518 -0.037172 -0.015329 -0.008957 -0.010847
sent_42 -0.001316 -0.004249 -0.016471 0.007187 -0.002761 0.043947 0.022480 0.008062 0.004841 0.011471 -0.035010 -0.050774 -0.017758 0.014485 0.003213 -0.040022 -0.030504 0.007912 -0.004032 -0.026076 0.028246 0.020346 0.032818 0.042491 0.035058 -0.035189 0.060906 0.014849 0.000819 0.041287 0.023586 0.019451 0.041148 -0.028701 0.033010 -0.024652 0.060316 0.009059 0.036528 -0.064590 0.033666 0.029507 -0.037981 -0.056552 0.008481 -0.005929 0.008527 0.010402 0.017414 -0.056284 0.043112 -0.007695 0.041330 0.014966 0.057484 -0.022748 0.004845 -0.036433 -0.006078 0.023179 -0.013755 0.027822 -0.085936 0.016321 0.066090 0.089531 0.042771 -0.005711 0.003945 -0.021689 -0.029694 -0.005245 0.043451 -0.032032 0.041323 -0.012036 0.013813 0.005157 -0.006874 -0.037211 0.043062 0.027611 0.008730 0.035317 -0.001646 0.021285 0.019136 -0.018796 0.018189 0.014937 -0.023248 0.050254 0.013894 0.006295 0.033739 0.066532 -0.027056 0.020273 0.062426 0.018372
sent_43 0.033658 0.001253 -0.029112 0.007778 -0.028805 0.012220 0.001338 0.015299 -0.008311 0.014425 -0.007712 -0.041001 0.025345 0.036339 -0.013896 -0.038915 -0.030772 -0.009425 -0.033685 -0.010805 0.019487 0.014561 0.018949 0.016025 0.013319 -0.000282 0.048563 0.017912 -0.005586 0.008424 0.003960 0.043915 0.027199 -0.020421 0.018054 -0.001828 0.035992 0.012088 0.023391 -0.044642 0.022528 -0.004675 -0.042775 -0.025761 0.009439 0.010929 -0.001430 -0.020129 0.004957 -0.027268 0.010028 -0.032199 0.048227 0.007166 0.036377 -0.010022 0.004835 -0.037190 0.001219 0.017374 -0.027222 0.032147 -0.062259 0.009305 0.046380 0.050303 0.005804 -0.014756 0.027567 0.002338 -0.040145 0.025708 0.004099 -0.009643 0.047494 0.005033 0.012008 -0.000259 -0.017501 -0.018942 0.020350 0.037792 -0.007377 -0.045313 -0.006350 0.044694 0.027446 -0.019561 0.017439 0.023297 0.009605 0.020888 0.009872 0.004971 0.010351 0.040072 -0.022424 0.027467 0.027202 0.025661
sent_44 0.012338 -0.002960 0.008364 0.007524 -0.006740 0.005283 -0.002490 -0.009817 -0.013420 0.016450 -0.000617 -0.004297 -0.008974 0.002745 0.010221 -0.000056 -0.017327 0.013411 0.001456 0.004098 -0.005103 0.003789 0.002785 0.006212 0.011460 0.007878 0.006360 0.001983 -0.005403 0.004031 -0.005906 0.012177 0.008428 -0.009160 0.010915 0.010065 0.009548 0.018554 0.008970 -0.007353 0.005787 -0.008339 -0.017822 -0.014202 -0.002041 0.007010 0.011420 0.000318 0.002214 -0.005483 0.013518 -0.009049 0.003903 0.020308 -0.007616 -0.002284 -0.008470 -0.007502 -0.000713 0.004074 0.004057 0.010405 -0.015561 -0.012941 0.031607 0.024168 0.001135 -0.007389 -0.010104 -0.000381 -0.000437 -0.001341 0.014518 -0.009806 -0.012027 -0.014515 0.006133 -0.002114 -0.006046 0.001136 0.002107 -0.000564 -0.012263 0.010826 -0.014676 0.006559 0.012383 -0.006994 0.001349 0.004945 0.007133 0.003229 0.009587 -0.003078 -0.007814 0.015868 0.004122 -0.014762 -0.001538 -0.003163
sent_45 0.031638 -0.013627 0.002668 0.001157 -0.004562 0.018705 0.003584 -0.007097 -0.010864 0.029475 -0.016243 -0.041004 -0.009578 0.011012 -0.012395 -0.034393 -0.030810 0.021383 -0.015848 -0.013527 0.007489 0.005706 0.014125 0.007022 0.021573 0.025959 0.053760 -0.015460 -0.005910 0.027992 -0.001293 0.061424 0.018782 -0.018740 0.005413 -0.007367 0.045445 0.027091 0.021294 -0.044058 0.037276 0.008162 -0.019123 -0.008406 0.012004 0.008761 0.016593 -0.022906 0.022477 -0.039189 0.046630 -0.024422 0.030111 0.027446 0.019433 -0.003725 -0.007417 -0.019468 0.007842 0.020705 0.006034 0.018795 -0.042364 -0.023291 0.084712 0.068780 0.023816 -0.009795 -0.003310 -0.012858 -0.006842 -0.020745 0.021393 -0.027957 -0.005569 -0.029468 -0.002397 -0.013256 -0.005863 -0.006744 0.015018 0.027963 -0.015128 0.012533 -0.004955 0.048399 0.026620 -0.012355 0.008840 -0.013307 0.023469 0.039055 0.027887 0.004954 -0.003463 0.048271 0.014310 -0.003499 0.007712 0.026743
sent_46 0.019053 -0.005165 0.010997 0.009929 -0.000917 0.008575 -0.011289 -0.024281 -0.019385 0.022248 0.002565 -0.034931 -0.019393 0.006351 0.015366 -0.017345 -0.034968 0.021947 -0.000495 -0.002027 -0.001194 0.009029 0.012168 0.002709 0.020706 0.036792 0.011307 -0.000923 -0.013763 0.019615 -0.022591 0.044337 0.032303 -0.013189 0.002576 0.015068 0.017022 0.028286 0.023602 -0.020313 0.026395 -0.007966 -0.012634 -0.006747 -0.010625 0.006153 0.012576 -0.016644 0.013375 -0.016856 0.021884 -0.020416 0.008511 0.032557 0.008612 0.007072 0.009152 -0.017078 -0.007616 0.009405 0.014130 0.015799 -0.013799 -0.011719 0.071023 0.045843 0.007946 -0.008840 -0.011017 -0.009277 -0.004492 -0.000622 0.008574 -0.022181 -0.009450 -0.018990 0.011229 -0.000011 -0.006640 0.003431 0.004321 0.020901 -0.005178 0.001678 -0.009497 0.033795 0.019691 0.005534 0.019629 -0.002675 0.015068 0.025871 0.010247 -0.004124 -0.007998 0.028677 0.029727 -0.013238 0.004382 0.021094
sent_47 0.003661 0.000324 0.003948 0.002397 0.000229 0.002197 0.003867 -0.003055 -0.000702 0.003594 -0.004695 -0.003669 -0.000947 -0.003876 0.002262 0.004748 -0.000109 0.004603 -0.003642 0.002004 0.000829 0.002917 0.000377 0.004799 -0.000603 0.004503 0.004183 -0.000761 -0.000895 -0.004801 -0.000515 -0.003006 -0.001641 -0.002175 0.001702 -0.000598 0.001002 0.003435 0.003328 0.000856 -0.000595 -0.000996 -0.004289 -0.000326 -0.000970 -0.002985 0.003027 0.001981 0.004754 -0.001145 -0.000831 0.000197 -0.001467 0.000452 0.003898 0.002305 -0.002935 0.003002 0.002953 0.002991 -0.001832 0.001130 0.001523 -0.003798 0.004187 -0.001319 0.001884 0.004283 0.001749 0.004385 0.001991 -0.003291 0.002289 -0.000943 -0.001814 0.002806 0.002905 0.004490 -0.002968 0.000327 0.002721 0.000163 -0.002712 0.004953 0.003893 0.000771 0.000380 0.003400 0.004146 0.003196 -0.000672 0.003556 -0.002744 0.000405 -0.001848 -0.003804 -0.003545 0.004366 -0.003050 0.001499
sent_48 0.025170 -0.005517 0.016800 0.016326 -0.011830 0.021352 0.002378 -0.021599 -0.008689 0.027437 0.003286 -0.010299 -0.008254 -0.008883 0.019125 -0.008715 -0.024156 0.024111 -0.008017 0.016474 0.004256 0.016159 0.014503 0.000843 0.015960 0.020960 0.010878 0.000242 -0.019084 0.002239 -0.001496 0.022309 0.000331 -0.003615 0.014164 0.019823 0.016265 0.034390 0.015711 -0.010462 0.015155 -0.004040 -0.021318 -0.004376 -0.000624 0.021465 0.005075 -0.003985 0.003872 0.008126 0.024752 -0.025186 0.006781 0.036341 -0.017457 -0.009966 -0.025463 -0.002498 0.007224 0.020976 0.007365 0.015144 -0.026758 -0.032548 0.056584 0.033771 0.002851 -0.013292 -0.014684 0.006202 -0.010554 -0.005178 0.009487 -0.012926 -0.016997 -0.026599 0.014313 -0.010667 -0.014063 0.016538 0.003871 0.001465 -0.029731 0.025874 -0.027376 0.018193 0.025079 -0.011828 -0.009746 0.002141 0.007414 -0.000357 0.029309 -0.013301 -0.005898 0.016316 0.008802 -0.020270 0.003669 0.004306
sent_49 0.018493 -0.012839 -0.010373 -0.000003 0.006451 0.062405 -0.011746 -0.048063 -0.025266 0.026346 -0.028602 -0.100136 -0.009014 0.037187 0.010987 -0.052171 -0.038325 0.030153 -0.007034 -0.012833 0.009662 0.048755 0.015054 0.006899 0.054045 0.048619 0.065461 -0.002091 -0.005116 0.036418 -0.041839 0.052375 0.056974 -0.009469 -0.010508 -0.004307 0.012321 0.028814 0.052364 -0.061869 0.047009 0.014311 -0.025147 -0.002438 -0.018435 0.020945 -0.014186 -0.012510 0.010570 -0.063523 0.040845 -0.052420 0.039924 0.033372 0.066914 0.012882 0.048155 -0.024654 -0.000179 0.053781 0.007344 0.007195 -0.040445 -0.008173 0.119617 0.084405 0.025636 -0.027010 0.014074 -0.030612 -0.024920 -0.007066 0.001201 -0.036323 0.025272 -0.007681 -0.004234 0.012698 -0.021528 -0.042293 0.006955 0.017712 0.031334 -0.034525 0.001013 0.061656 0.051018 -0.019876 0.025159 0.005991 0.007770 0.044977 0.027121 0.002002 -0.011346 0.077234 0.028944 0.029281 0.043118 0.059140
sent_50 0.017893 0.010411 -0.027729 0.019756 -0.023748 0.051677 0.001774 -0.002004 -0.006382 0.028433 -0.010036 -0.043312 -0.003961 0.021345 0.000717 -0.037351 -0.047716 0.011942 -0.021523 -0.028566 0.026557 0.026854 0.027863 0.044338 0.032830 -0.003290 0.058005 0.014332 -0.013398 0.022872 0.022210 0.047592 0.039552 -0.021109 0.036834 -0.008150 0.064762 0.023136 0.049040 -0.062426 0.037027 0.006349 -0.060596 -0.047619 0.028773 0.025132 -0.001646 -0.006486 0.013007 -0.046079 0.058791 -0.046683 0.052250 0.021491 0.042814 -0.027172 -0.002713 -0.036984 0.006356 0.040334 -0.004313 0.025276 -0.081217 0.002808 0.092999 0.096530 0.029764 -0.014430 0.003073 -0.012173 -0.039531 0.004217 0.034521 -0.011151 0.040148 -0.017310 0.016889 0.010019 -0.025102 -0.015670 0.034923 0.039884 -0.001191 -0.005244 -0.016938 0.035755 0.033877 -0.034734 0.018770 0.017534 0.010287 0.052127 0.011335 0.005649 0.013763 0.079644 -0.012740 0.011962 0.042994 0.012173
sent_51 0.141249 -0.060195 -0.053766 0.028110 -0.059352 -0.021697 0.044774 0.060728 -0.036550 0.052426 -0.059609 -0.120456 0.029938 0.057879 -0.094901 -0.098414 -0.086595 -0.014762 -0.097999 -0.022169 0.035052 -0.013675 0.052038 0.010528 0.040863 0.031280 0.150919 0.012827 0.018512 0.051461 -0.010109 0.156937 0.042513 -0.056279 0.036586 -0.015814 0.102823 0.043336 0.038090 -0.111451 0.065039 -0.005195 -0.082732 -0.052826 -0.001930 -0.010989 0.041619 -0.053377 0.057894 -0.081983 -0.008238 -0.033635 0.075764 0.024760 0.093563 0.018055 0.019463 -0.103349 -0.006557 0.034054 -0.086001 0.113395 -0.166662 0.023763 0.138875 0.164383 -0.004980 -0.030317 0.070103 0.033199 -0.047974 0.025923 0.001355 -0.085944 0.064582 -0.015737 0.024712 -0.038030 -0.033201 -0.047622 0.044540 0.090032 -0.044794 -0.059947 0.012803 0.136154 0.061808 -0.006063 0.016469 0.005964 0.025157 0.042672 0.026693 -0.002686 0.014084 0.081739 -0.022190 0.026512 0.056184 0.125491
sent_52 0.043224 0.004643 -0.006275 0.060820 -0.077064 0.049488 0.048677 -0.076632 -0.042220 0.074962 -0.011264 -0.080647 -0.018976 0.039180 0.036047 0.010226 -0.110692 0.056205 -0.014835 0.015993 0.013678 0.031621 0.037502 0.034087 0.076835 -0.015531 0.102548 0.051109 -0.031339 0.053768 -0.062144 0.094514 0.101144 -0.050883 0.030580 0.000337 0.015368 0.111313 0.099255 -0.067849 0.038266 -0.041494 -0.095835 -0.101488 0.019706 0.043037 0.059335 0.030987 0.024023 -0.025320 0.003853 -0.085078 0.062348 0.147049 0.039580 0.005776 -0.020553 -0.054864 -0.059134 0.039862 -0.042647 0.078721 -0.135136 -0.022809 0.157404 0.119260 0.023684 -0.009001 0.003254 0.007489 -0.039534 0.077397 0.057892 -0.104932 0.061519 -0.052638 0.045867 -0.006658 -0.038040 -0.033800 0.018447 -0.030826 -0.030304 -0.046206 -0.045218 0.036236 0.088620 0.028292 0.018578 0.062783 0.009162 0.019617 0.067023 -0.000841 -0.039510 0.087059 -0.057101 -0.002970 0.038350 0.075576
sent_53 0.011318 -0.009658 0.009964 0.004375 -0.012525 -0.013312 0.011729 -0.004599 -0.015927 0.014874 -0.002395 -0.020603 -0.002696 0.002163 -0.003474 0.004685 -0.012075 0.008171 -0.012402 0.000873 -0.003213 -0.004635 0.002476 -0.005730 0.008813 0.006022 0.024745 -0.008425 0.006185 0.016782 -0.019804 0.026448 0.007581 -0.003135 -0.008472 0.002651 -0.006803 0.018390 0.011915 -0.008596 0.006822 -0.004386 0.002208 0.000748 0.001876 0.000027 0.019142 -0.002915 0.003961 -0.005168 -0.009140 -0.010581 0.005223 0.031572 0.001049 0.012878 -0.007464 -0.005642 -0.015178 0.003786 -0.006621 0.016501 -0.006483 -0.014648 0.024813 0.007797 -0.006373 -0.004078 0.008779 -0.000850 0.013708 0.001291 -0.000336 -0.027273 -0.007078 -0.014401 0.001985 -0.008957 0.001585 0.003328 -0.001892 -0.012102 -0.015953 -0.011048 -0.003016 0.007901 0.016877 0.012530 0.003015 -0.009662 0.008717 -0.001444 0.017292 -0.002537 -0.018294 -0.000077 -0.002436 -0.006966 -0.010513 0.022095
sent_54 0.004743 0.002517 -0.001190 -0.000660 0.002128 -0.004063 0.001378 -0.003856 -0.003982 0.001667 -0.003329 0.002647 0.002506 -0.001880 0.000709 0.001451 0.003115 -0.002985 0.001762 0.003229 -0.000856 -0.000063 0.000142 0.004393 -0.004483 0.000716 -0.000102 -0.001562 0.001699 0.002694 0.000401 -0.004584 -0.002649 -0.004796 -0.001722 -0.000319 0.002846 0.000323 -0.000226 0.001979 -0.004826 0.001950 -0.001880 0.000598 0.001068 -0.003179 -0.002497 0.000788 -0.002374 -0.002606 -0.001410 0.004044 0.003692 0.000140 -0.004483 0.003003 -0.003188 0.001687 0.003354 0.004648 -0.003732 0.000233 0.003506 0.000376 0.002300 0.002855 0.003366 0.001665 0.003977 0.001478 0.004446 0.001293 0.003724 0.000957 -0.001557 0.003135 -0.000676 -0.003735 0.004686 0.003526 0.000613 0.001706 0.004977 -0.003387 0.000345 -0.001090 0.000411 -0.003966 -0.000593 -0.000385 0.000959 0.001624 0.000901 0.002294 0.000809 -0.000569 -0.000032 -0.000699 -0.002899 -0.002732
sent_55 0.066571 0.000758 0.019324 0.034724 -0.025501 0.066577 -0.019973 -0.070702 -0.042754 0.067844 0.008776 -0.074498 -0.020753 0.024313 0.051849 -0.048040 -0.079940 0.065055 -0.008030 0.000894 0.015380 0.047416 0.034098 0.018067 0.069332 0.083184 0.050163 0.017937 -0.053197 0.035092 -0.036007 0.121186 0.064966 -0.034129 0.027729 0.029446 0.057542 0.087604 0.081333 -0.060822 0.074927 -0.033013 -0.074961 -0.036352 0.003595 0.066166 0.015659 -0.038098 0.020886 -0.031015 0.082492 -0.090205 0.053244 0.097231 -0.001812 -0.013763 -0.007800 -0.035062 -0.003246 0.060602 0.029934 0.035276 -0.060358 -0.062143 0.203815 0.139972 0.034677 -0.034619 -0.032209 -0.003497 -0.037971 0.007119 0.033194 -0.036206 -0.000921 -0.047285 0.034412 0.011461 -0.037519 -0.001798 0.020672 0.048475 -0.028591 -0.007373 -0.054997 0.073172 0.067308 -0.040549 0.034244 0.028176 0.056039 0.052557 0.039672 -0.008834 -0.014480 0.104524 0.047691 -0.026413 0.021595 0.041317
sent_56 0.127054 -0.075776 -0.001453 -0.010265 -0.063924 0.033372 0.072400 0.113270 0.027352 0.064936 -0.064396 -0.079995 0.030020 0.010273 -0.120433 -0.110334 -0.015593 0.016570 -0.104195 -0.060739 0.058237 -0.010896 0.072507 0.041234 0.038818 -0.012830 0.174729 -0.034202 0.022280 0.030325 0.076557 0.124606 -0.023606 -0.034906 0.086235 -0.032905 0.159656 0.027023 0.032088 -0.131877 0.117491 0.060086 -0.068420 -0.027906 0.063241 -0.006223 0.056563 -0.062066 0.054351 -0.083595 0.068652 -0.030125 0.081976 0.019804 0.044000 -0.067240 -0.072471 -0.059765 0.072512 0.055758 -0.054532 0.111584 -0.200338 -0.012519 0.131045 0.155584 0.032519 -0.034877 0.050817 0.027169 -0.036395 -0.062195 0.049133 -0.061687 0.039435 -0.038121 -0.008862 -0.050579 -0.008720 0.001121 0.083866 0.087854 -0.085214 0.082349 0.015187 0.126667 0.044525 -0.071812 -0.018563 -0.038555 0.005694 0.048936 0.052108 -0.009070 0.061086 0.092248 -0.042054 0.009368 0.043007 0.041140
sent_57 -0.005686 0.001026 -0.002609 0.010009 0.003412 0.003315 0.006488 -0.008255 -0.003742 -0.000686 -0.001215 -0.002149 -0.009409 0.001713 0.008815 0.003266 -0.003747 0.004547 0.001079 0.002827 0.005085 0.001943 0.000612 0.005187 0.003416 0.000885 -0.003358 0.002139 -0.001402 -0.000055 0.000757 0.002490 0.006739 -0.005475 0.003064 0.001189 0.011581 0.005914 -0.000155 -0.000999 0.006719 -0.002689 0.000006 -0.012711 0.003066 0.000621 -0.001272 -0.000762 0.005991 -0.003492 0.006794 -0.005689 0.000040 0.006220 0.004414 -0.000883 -0.004494 -0.003411 -0.001720 0.003500 0.002874 -0.002310 -0.006279 0.000155 0.008950 0.016253 0.006204 0.005531 -0.002527 -0.002627 -0.002077 0.002915 0.008418 -0.000643 0.004082 -0.009366 -0.000744 -0.001233 -0.008561 0.001402 -0.001420 0.001285 -0.002634 0.012369 -0.008673 -0.009169 0.006761 0.004939 0.006913 0.001778 0.002708 0.003920 0.000544 0.001165 0.006965 0.002304 0.002411 -0.004622 0.004780 0.001945
sent_58 0.130472 -0.055857 -0.052182 0.013163 -0.112583 0.059734 0.056965 0.107428 -0.005634 0.100252 -0.057853 -0.137753 0.050361 0.055267 -0.122407 -0.108769 -0.100478 0.031833 -0.118881 -0.088873 0.076059 0.009315 0.077147 0.094523 0.061087 -0.013377 0.233494 0.010820 0.013180 0.056656 0.061207 0.201035 0.061930 -0.052053 0.071843 -0.047537 0.165828 0.080538 0.108030 -0.167210 0.139689 0.009520 -0.136246 -0.076565 0.119368 0.030445 0.091095 -0.051361 0.028500 -0.106392 0.101456 -0.117720 0.162394 0.080885 0.095044 -0.062761 -0.064895 -0.077830 0.049879 0.079981 -0.080403 0.123244 -0.255097 -0.008994 0.224449 0.225878 0.035380 -0.032692 0.058169 0.044950 -0.069061 0.012488 0.066844 -0.073410 0.082137 -0.040635 0.022082 -0.006412 -0.027145 -0.030237 0.071026 0.095725 -0.083403 -0.019488 -0.017897 0.174801 0.078450 -0.098306 0.010437 -0.022814 0.028251 0.113863 0.071270 0.016924 0.010985 0.188503 -0.076866 0.022881 0.068311 0.062605
sent_59 0.188972 -0.058196 0.009757 0.067743 -0.097468 0.081654 0.063522 -0.046017 -0.095456 0.154182 -0.043000 -0.171489 -0.054932 0.059951 0.024438 -0.125686 -0.211597 0.105095 -0.090184 -0.014606 0.044921 0.031901 0.116664 0.045184 0.138757 0.074914 0.216240 0.031306 -0.086109 0.146744 -0.038810 0.304061 0.147086 -0.127400 0.082835 0.015428 0.218800 0.177591 0.146810 -0.208574 0.170878 -0.024195 -0.171151 -0.148908 0.016669 0.047638 0.109788 -0.083343 0.125062 -0.132672 0.122690 -0.125639 0.134165 0.213322 0.069305 -0.008637 -0.037370 -0.150634 -0.038205 0.070561 -0.036752 0.169613 -0.275871 -0.074242 0.408802 0.374779 0.084899 -0.043976 -0.008084 -0.004686 -0.075648 0.009697 0.118003 -0.184552 0.043333 -0.133748 0.082561 -0.055838 -0.053021 -0.013549 0.110516 0.138380 -0.112227 0.033245 -0.085377 0.192616 0.134995 -0.007001 0.073533 0.034187 0.085505 0.143107 0.098199 -0.010636 0.022296 0.198639 0.025401 -0.058830 0.072263 0.140701
sent_60 0.071178 -0.045562 0.004162 -0.047291 -0.034588 0.019251 0.012335 0.061730 0.014890 0.030446 -0.031271 -0.089756 0.048261 0.028152 -0.106076 -0.074993 0.004779 0.009695 -0.083385 -0.064620 0.032676 0.002418 0.020309 0.019275 0.013739 0.041438 0.110996 -0.053752 0.032116 0.011027 0.018150 0.103587 -0.023100 0.009071 -0.001219 -0.018626 0.054014 0.010492 0.016515 -0.079342 0.092364 0.046034 -0.010596 0.050903 0.051923 -0.008829 0.031884 -0.065720 0.003471 -0.063335 0.041719 -0.053441 0.073751 0.001116 0.048915 -0.009366 -0.024649 -0.015237 0.059043 0.060020 -0.022206 0.027718 -0.070952 -0.030299 0.092436 0.050768 0.003556 -0.036166 0.055281 -0.006819 -0.024961 -0.055021 -0.004919 -0.024428 0.023869 -0.001779 -0.033989 -0.020925 0.002868 -0.013002 0.011781 0.040337 -0.019222 -0.029325 0.038626 0.118121 0.042280 -0.069591 -0.003838 -0.065642 0.032582 0.038082 0.033993 -0.004148 -0.003901 0.058670 -0.003718 0.029913 0.003408 0.047324
sent_61 0.043575 0.000560 0.032234 0.001803 -0.023708 0.016933 -0.011249 -0.020753 -0.004438 0.038556 0.012002 -0.032335 -0.006026 0.010520 0.001989 -0.032297 -0.046747 0.011479 -0.028217 -0.006687 0.019515 0.013654 0.038633 0.020154 0.026781 0.036273 0.031619 -0.009668 -0.038766 0.044369 -0.025871 0.084383 0.033590 -0.011571 0.011495 0.037113 0.052731 0.050425 0.029806 -0.052495 0.042776 -0.001375 -0.035273 -0.001466 0.011838 0.010608 0.019657 -0.029849 0.014050 -0.019524 0.029066 -0.047016 0.026313 0.049869 -0.013575 0.006374 -0.036443 -0.030681 0.002832 0.026776 0.009702 0.021905 -0.036038 -0.028283 0.097141 0.060540 0.000645 -0.015916 -0.019487 -0.010780 -0.041257 -0.010447 0.040682 -0.018098 -0.011296 -0.032204 0.017637 -0.006703 0.006329 0.017776 0.026545 0.046114 -0.026813 0.002138 -0.015146 0.070013 0.033249 -0.006820 0.024956 0.002669 0.031044 0.030147 0.023329 -0.006116 -0.014607 0.019429 0.025466 -0.027187 0.001728 0.021872
sent_62 0.083253 0.012385 -0.090553 0.075392 -0.132946 0.099870 -0.004603 -0.020314 -0.050566 0.116708 -0.016576 -0.184306 0.047982 0.140106 -0.028689 -0.070743 -0.202065 0.027670 -0.110584 -0.079544 0.100181 0.064013 0.078581 0.121259 0.088870 0.025320 0.224888 0.075595 -0.026443 0.086515 -0.022035 0.279536 0.201310 -0.088806 0.038922 -0.025042 0.159233 0.146672 0.207838 -0.182743 0.134762 -0.062237 -0.206194 -0.129826 0.136983 0.112300 0.074008 -0.043848 0.000157 -0.113275 0.135223 -0.224532 0.210590 0.151325 0.138964 -0.038152 -0.020628 -0.104226 -0.000063 0.116833 -0.052759 0.076340 -0.240031 -0.003766 0.387763 0.304533 0.055665 -0.008151 0.054212 0.026205 -0.131484 0.125227 0.075345 -0.079806 0.121129 -0.043464 0.063435 0.061527 -0.085665 -0.039143 0.045794 0.118257 -0.048439 -0.164189 -0.058251 0.188535 0.138141 -0.088193 0.094073 0.057177 0.107932 0.186427 0.068315 0.049249 -0.078858 0.302305 -0.049712 0.026875 0.100489 0.087580
sent_63 0.091944 -0.049749 0.029857 0.016862 -0.039793 0.045918 0.031328 0.007878 -0.013164 0.084019 -0.022722 -0.060244 -0.019884 -0.008318 -0.015455 -0.052026 -0.050381 0.051401 -0.030667 0.001976 0.025825 0.015979 0.046532 0.023968 0.052746 0.018844 0.099459 -0.011300 -0.025664 0.034527 0.014324 0.089993 0.006162 -0.024014 0.056611 0.014777 0.086425 0.068827 0.044344 -0.079540 0.071827 0.013069 -0.059121 -0.030698 0.013314 0.014864 0.038425 -0.024357 0.038537 -0.039520 0.046373 -0.040062 0.045652 0.073807 -0.002572 -0.026168 -0.051983 -0.038443 0.017884 0.052615 -0.014750 0.084869 -0.119798 -0.052678 0.131903 0.117477 0.016558 -0.043394 -0.002328 0.015974 -0.029300 -0.025516 0.050290 -0.060367 0.001903 -0.051342 0.013779 -0.036627 -0.008512 0.009591 0.046192 0.036368 -0.068447 0.069451 -0.024666 0.078649 0.056433 -0.030237 -0.010428 -0.003240 0.013303 0.021386 0.050550 -0.022074 0.023378 0.050610 -0.005046 -0.022794 0.026855 0.038708
sent_64 0.020537 -0.000346 0.022004 0.017907 -0.017454 0.039331 0.002713 -0.034770 -0.016051 0.035730 -0.001598 -0.021883 -0.025524 -0.006089 0.039935 -0.013380 -0.041153 0.040588 0.003205 0.007230 0.010910 0.024342 0.025029 0.015396 0.036882 0.006589 0.031632 0.002083 -0.035057 0.018520 -0.014328 0.025332 0.024587 -0.017825 0.027250 0.021311 0.028526 0.043360 0.036816 -0.024193 0.024348 -0.004582 -0.031557 -0.033017 -0.003104 0.025923 0.006927 0.009257 0.011882 -0.008896 0.030168 -0.025321 0.016968 0.054009 -0.010150 -0.008484 -0.022405 -0.015598 -0.013620 0.030749 0.007842 0.025593 -0.044294 -0.033628 0.081647 0.057589 0.015927 -0.022206 -0.024698 -0.012333 -0.016019 -0.007118 0.029562 -0.032663 -0.001053 -0.035558 0.018912 -0.007816 -0.015926 -0.000841 0.020977 0.006165 -0.021192 0.033923 -0.027079 0.015482 0.028192 -0.010109 0.003568 0.021960 -0.000635 0.015171 0.030526 -0.009099 -0.002151 0.025494 0.006714 -0.010763 0.009580 0.013745
sent_65 0.011890 0.009805 -0.025528 0.012114 -0.023511 0.040629 0.015367 0.019395 0.006680 0.020587 -0.007741 -0.021235 0.002536 0.008040 -0.009857 -0.028740 -0.028266 0.004236 -0.017467 -0.022524 0.026560 0.018070 0.027133 0.040158 0.017428 -0.021859 0.050516 0.015278 -0.007443 0.007102 0.030105 0.023764 0.022030 -0.011562 0.035768 -0.011300 0.049873 0.018711 0.034082 -0.038458 0.023411 0.000295 -0.047300 -0.040581 0.023365 0.017423 0.004487 0.001388 0.006438 -0.022078 0.035513 -0.027777 0.038863 0.014764 0.020581 -0.031222 -0.015756 -0.023936 0.002369 0.022862 -0.021260 0.026191 -0.073337 0.015161 0.047358 0.057614 0.018522 -0.006563 0.000843 0.000918 -0.036801 0.014204 0.035420 -0.007999 0.038083 -0.004314 0.008919 0.005234 -0.008345 -0.020714 0.029708 0.022651 -0.007160 0.002192 -0.016108 0.016964 0.019021 -0.027460 0.000077 0.014577 -0.007597 0.029851 0.006568 0.002521 0.023507 0.049857 -0.034989 0.012242 0.035251 -0.002629
