7 100
sent_0 -0.000737 0.002127 -0.005197 -0.001916 -0.003549 -0.004258 -0.003245 -0.001516 -0.001081 0.000132 -0.000797 0.001766 -0.002975 0.003761 -0.004826 0.001478 -0.000722 0.000331 -0.003732 -0.002933 0.003089 0.004366 -0.001861 0.001674 0.003779 0.003884 -0.004252 -0.004645 -0.003264 0.003772 -0.003891 -0.000620 0.004436 0.000151 0.002364 -0.001762 0.001937 0.003384 -0.004905 0.002301 0.004673 0.002133 -0.002151 0.002857 -0.003709 -0.000471 0.003950 -0.001860 -0.001736 -0.003553 -0.004829 0.001926 -0.002644 -0.002311 -0.000127 -0.004343 0.000680 -0.003710 0.000831 0.002237 -0.004283 -0.000692 0.001905 -0.001108 -0.004571 0.000201 0.001306 0.000175 0.004473 0.000941 0.004108 -0.004003 -0.003334 0.002923 -0.000911 -0.003554 0.004476 -0.001302 0.002814 0.002031 0.003728 0.001107 0.002761 -0.001825 -0.002521 0.003817 -0.000912 0.004311 0.001561 0.000914 -0.004064 0.004379 -0.000584 0.000618 -0.000847 -0.002655 0.003814 0.000558 -0.005091 0.001361
sent_1 -0.000771 -0.000173 0.005087 -0.001800 0.005504 -0.001015 -0.007114 0.006902 0.000003 0.007213 -0.003041 -0.005055 0.000505 -0.000970 -0.004438 -0.000701 0.002013 0.006553 0.003921 -0.001815 -0.005829 -0.005887 -0.005278 -0.005523 0.002712 0.005305 0.000537 0.002979 -0.004289 -0.007378 0.003294 0.005493 -0.002354 -0.009204 0.005910 -0.000285 0.002901 -0.004425 0.004096 0.004406 -0.000726 -0.005773 -0.003858 -0.001510 -0.003945 -0.004137 -0.005181 0.001995 0.001730 0.000782 -0.005492 0.007103 -0.000172 -0.002795 -0.000301 0.004029 -0.000503 0.002352 0.002976 0.004727 -0.002302 0.003688 0.003121 0.001966 0.001014 -0.006127 -0.005414 0.000614 0.000132 0.001592 0.000742 0.004043 -0.002109 -0.004037 -0.000385 0.000158 0.001093 -0.000008 -0.006309 0.001912 0.000251 -0.004172 0.000767 -0.004334 -0.003510 0.004776 -0.004379 0.002394 0.003857 0.002920 -0.004577 -0.002909 0.004872 -0.000044 0.001558 0.003127 -0.007457 -0.005650 0.001587 0.005042
sent_2 0.004431 0.000435 0.004603 0.001615 -0.000918 -0.001150 0.000149 0.001749 0.003876 0.005139 -0.000696 0.004652 -0.004841 -0.004528 -0.003121 -0.001598 -0.004799 0.004993 0.003601 -0.004663 -0.003491 -0.002269 -0.003976 0.001551 -0.001708 0.005592 0.000337 0.003731 0.003067 0.002840 0.000161 0.000885 0.002443 -0.003403 0.001130 0.001832 -0.005048 0.000060 -0.001113 0.003323 -0.002120 0.002815 0.000917 -0.002412 0.003129 0.001711 -0.005628 -0.000779 0.002579 0.006081 -0.005283 0.005488 -0.001110 0.004958 0.001587 0.003930 0.001218 0.001624 -0.003187 0.001066 0.002600 0.005546 0.003154 0.001960 0.004802 -0.002239 0.001092 -0.000601 -0.001706 -0.000667 -0.000394 -0.001984 0.000425 -0.001914 0.004812 0.000761 -0.003012 0.000262 -0.001865 0.003715 0.003455 0.004227 0.000874 -0.002625 -0.002724 0.003898 0.000136 0.003607 0.002168 0.001531 -0.000600 0.002764 0.001091 -0.001336 -0.002438 -0.004918 -0.002008 -0.005037 0.005355 -0.002898
sent_3 0.003291 0.003284 0.002487 0.000527 -0.002762 -0.001410 -0.002588 -0.001882 0.000119 -0.000842 0.004566 0.003331 -0.004617 -0.005313 -0.003018 -0.001090 0.002019 -0.001620 -0.001142 0.004255 -0.001714 0.000647 -0.003153 -0.005081 -0.000654 0.002082 -0.003549 0.001289 0.000269 -0.001229 -0.002566 0.002696 -0.004016 -0.002056 0.004156 -0.003802 -0.002335 0.002088 0.003843 0.001787 0.003514 0.003732 0.003643 0.004343 -0.003639 0.001285 0.001209 0.001363 0.003297 -0.002170 0.001615 0.003608 -0.003185 -0.001977 0.002499 -0.000730 0.004254 0.000109 0.002213 0.005347 -0.001641 -0.001891 0.004870 -0.000367 0.006864 0.000766 0.004691 0.000894 0.000106 -0.003492 0.000391 -0.004957 -0.004618 0.001106 -0.005432 -0.002667 0.003044 0.003157 0.000859 -0.001210 -0.001265 0.000312 0.004402 -0.002379 -0.003004 -0.001666 0.001690 0.000125 -0.002705 0.000010 -0.003903 0.004315 -0.000753 -0.005914 -0.000670 0.003176 -0.002161 0.001184 0.000152 0.000680
sent_4 0.004862 0.002799 -0.004401 0.002305 -0.000195 0.003487 -0.003421 -0.001226 -0.004970 -0.000413 -0.003915 0.001286 0.001930 0.001262 0.002719 -0.003198 0.003515 -0.000347 0.003526 0.001904 -0.003853 -0.004823 -0.005024 -0.005328 -0.000320 -0.002273 -0.005016 0.002280 -0.000951 0.000976 0.000534 0.000431 -0.001365 -0.001703 0.004384 -0.000107 0.004028 -0.005580 0.001975 -0.003219 0.000588 -0.006006 0.000525 -0.004185 0.004797 0.004388 0.001854 0.003879 -0.003012 -0.001560 -0.003330 0.001925 0.004248 0.004782 0.002476 0.002859 0.004867 -0.000699 -0.003005 -0.003026 -0.004116 0.004849 -0.002944 -0.002760 0.004092 -0.002332 0.003838 -0.002153 0.000142 -0.001593 0.004750 -0.001606 -0.001283 -0.000871 0.004675 -0.005537 0.001865 0.004806 -0.004932 0.000803 -0.002432 0.003390 -0.000086 0.001276 -0.000625 0.001740 -0.002510 -0.004872 0.001573 -0.002516 -0.000599 0.003864 -0.000501 -0.003722 -0.001569 0.003766 0.003669 0.002561 0.004428 -0.002468
sent_5 -0.004178 -0.002793 -0.001594 -0.003343 0.001427 -0.001547 0.002560 -0.002166 0.001543 -0.002387 0.000711 -0.001533 -0.005487 -0.003610 0.001954 -0.001492 0.000146 -0.002789 0.001226 0.005333 0.002607 0.000187 0.004355 0.003005 0.000366 -0.003236 -0.004043 -0.004326 -0.000576 -0.002780 0.005353 -0.002809 0.003879 0.001150 0.004232 0.002221 0.001662 -0.001200 -0.004889 -0.000884 -0.000798 0.001410 0.000030 0.000137 -0.003236 -0.004828 0.001449 -0.001737 0.005135 -0.000957 -0.001762 0.000804 0.002693 -0.000070 -0.003254 -0.001260 0.000565 0.002057 0.002040 -0.003371 -0.004706 0.001504 0.003461 -0.005152 0.002917 0.001437 -0.001117 0.004221 0.000950 -0.004990 0.000308 0.003502 0.002558 0.000605 0.001559 -0.000046 -0.002406 0.001407 0.001200 -0.000650 0.003126 -0.003304 0.002083 -0.002248 0.002438 -0.000358 0.002633 -0.001277 -0.001754 0.002355 -0.002317 0.002433 0.003126 -0.003734 -0.003520 -0.003364 -0.004292 -0.002120 -0.004207 -0.003874
sent_6 0.001451 0.003021 -0.004196 -0.002826 -0.003159 0.004498 0.002416 -0.000071 -0.001799 0.002937 -0.000599 0.004202 0.002654 0.000390 -0.003685 0.005681 -0.003349 -0.002894 -0.000867 -0.001357 -0.003680 0.002872 -0.003012 0.002310 0.002706 -0.003596 0.001165 0.002338 0.001370 0.001583 -0.002598 0.002201 0.004872 0.000054 0.002253 -0.004741 0.003371 -0.002627 -0.001207 -0.002016 -0.003626 0.004465 -0.001244 0.000326 -0.000376 -0.003821 -0.002214 -0.004479 -0.000724 -0.003579 -0.001391 -0.004460 0.002829 -0.004107 0.004677 -0.003616 0.000743 -0.004895 0.003354 -0.003658 0.000241 0.001858 -0.003738 0.000495 -0.003621 0.002934 0.002431 -0.003602 0.003812 -0.005120 0.003230 0.000902 -0.000714 0.003183 0.002346 0.005487 -0.002289 -0.005508 0.004508 0.003167 0.002442 0.000217 0.002614 0.002925 -0.000701 0.002725 0.002633 0.001080 -0.001738 0.002345 -0.004385 0.002561 0.003671 -0.002181 -0.003529 -0.002578 -0.001267 0.004401 0.000350 -0.002300
